Language model created by QuickLM on Sun Nov  1 12:36:29 EST 2015
Copyright (c) 1996-2010 Carnegie Mellon University and Alexander I. Rudnicky

The model is in standard ARPA format, designed by Doug Paul while he was at MITRE.

The code that was used to produce this language model is available in Open Source.
Please visit http://www.speech.cs.cmu.edu/tools/ for more information

The (fixed) discount mass is 0.5. The backoffs are computed using the ratio method.
This model based on a corpus of 32 sentences and 35 words

\data\
ngram 1=35
ngram 2=65
ngram 3=45

\1-grams:
-0.8333 </s> -0.3010
-0.8333 <s> -0.2203
-2.3385 BACK -0.2321
-2.3385 BACKWARD -0.2321
-2.3385 BIG -0.2321
-2.3385 BUILD -0.2950
-2.3385 CLOSE -0.2970
-2.3385 CORRIDOR -0.2321
-2.3385 FAST -0.2321
-2.3385 FOLLOW -0.2990
-2.0374 FOLLOWER -0.2321
-2.3385 FORWARD -0.2321
-2.3385 HALF -0.2321
-2.3385 HALL -0.2321
-2.3385 HOME -0.2321
-1.8613 LEFT -0.2321
-1.8613 MAP -0.2321
-2.3385 ME -0.2321
-2.3385 NAVIGATE -0.2990
-2.3385 NAVIGATION -0.2321
-2.3385 ONE -0.2321
-2.3385 OPEN -0.2970
-1.8613 RIGHT -0.2321
-2.3385 ROOM -0.2990
-2.0374 ROTATE -0.2889
-2.0374 RVIZ -0.2321
-2.3385 SAVE -0.2950
-2.3385 SLOW -0.2321
-2.3385 SPACE -0.2321
-1.8613 STOP -0.2203
-2.3385 THREE -0.2321
-2.3385 TO -0.2321
-2.0374 TURN -0.2889
-2.3385 TWO -0.2321
-2.3385 UNKNOWN -0.2321

\2-grams:
-1.8062 <s> BACK 0.0000
-1.8062 <s> BACKWARD 0.0000
-1.8062 <s> BIG 0.0000
-1.8062 <s> BUILD 0.0000
-1.8062 <s> CLOSE 0.0000
-1.8062 <s> CORRIDOR 0.0000
-1.8062 <s> FAST 0.0000
-1.8062 <s> FOLLOW 0.0000
-1.8062 <s> FOLLOWER 0.0000
-1.8062 <s> FORWARD 0.0000
-1.8062 <s> HALF 0.0000
-1.8062 <s> HALL 0.0000
-1.8062 <s> HOME 0.0000
-1.8062 <s> LEFT 0.0000
-1.8062 <s> NAVIGATE 0.0000
-1.8062 <s> NAVIGATION 0.0000
-1.8062 <s> OPEN 0.0000
-1.8062 <s> RIGHT 0.0000
-1.8062 <s> ROOM 0.0000
-1.5051 <s> ROTATE 0.0000
-1.8062 <s> SAVE 0.0000
-1.8062 <s> SLOW 0.0000
-1.8062 <s> SPACE 0.0000
-1.3291 <s> STOP 0.0000
-1.8062 <s> THREE 0.0000
-1.5051 <s> TURN 0.0000
-1.8062 <s> TWO 0.0000
-1.8062 <s> UNKNOWN 0.0000
-0.3010 BACK </s> -0.3010
-0.3010 BACKWARD </s> -0.3010
-0.3010 BIG </s> -0.3010
-0.3010 BUILD MAP 0.0000
-0.3010 CLOSE RVIZ 0.0000
-0.3010 CORRIDOR </s> -0.3010
-0.3010 FAST </s> -0.3010
-0.3010 FOLLOW ME 0.0000
-0.3010 FOLLOWER </s> -0.3010
-0.3010 FORWARD </s> -0.3010
-0.3010 HALF </s> -0.3010
-0.3010 HALL </s> -0.3010
-0.3010 HOME </s> -0.3010
-0.3010 LEFT </s> -0.3010
-0.3010 MAP </s> -0.3010
-0.3010 ME </s> -0.3010
-0.3010 NAVIGATE TO 0.0000
-0.3010 NAVIGATION </s> -0.3010
-0.3010 ONE </s> -0.3010
-0.3010 OPEN RVIZ 0.0000
-0.3010 RIGHT </s> -0.3010
-0.3010 ROOM ONE 0.0000
-0.6021 ROTATE LEFT 0.0000
-0.6021 ROTATE RIGHT 0.0000
-0.3010 RVIZ </s> -0.3010
-0.3010 SAVE MAP 0.0000
-0.3010 SLOW </s> -0.3010
-0.3010 SPACE </s> -0.3010
-0.7782 STOP </s> -0.3010
-0.7782 STOP FOLLOWER 0.0000
-0.7782 STOP MAP 0.0000
-0.3010 THREE </s> -0.3010
-0.3010 TO </s> -0.3010
-0.6021 TURN LEFT 0.0000
-0.6021 TURN RIGHT 0.0000
-0.3010 TWO </s> -0.3010
-0.3010 UNKNOWN </s> -0.3010

\3-grams:
-0.3010 <s> BACK </s>
-0.3010 <s> BACKWARD </s>
-0.3010 <s> BIG </s>
-0.3010 <s> BUILD MAP
-0.3010 <s> CLOSE RVIZ
-0.3010 <s> CORRIDOR </s>
-0.3010 <s> FAST </s>
-0.3010 <s> FOLLOW ME
-0.3010 <s> FOLLOWER </s>
-0.3010 <s> FORWARD </s>
-0.3010 <s> HALF </s>
-0.3010 <s> HALL </s>
-0.3010 <s> HOME </s>
-0.3010 <s> LEFT </s>
-0.3010 <s> NAVIGATE TO
-0.3010 <s> NAVIGATION </s>
-0.3010 <s> OPEN RVIZ
-0.3010 <s> RIGHT </s>
-0.3010 <s> ROOM ONE
-0.6021 <s> ROTATE LEFT
-0.6021 <s> ROTATE RIGHT
-0.3010 <s> SAVE MAP
-0.3010 <s> SLOW </s>
-0.3010 <s> SPACE </s>
-0.7782 <s> STOP </s>
-0.7782 <s> STOP FOLLOWER
-0.7782 <s> STOP MAP
-0.3010 <s> THREE </s>
-0.6021 <s> TURN LEFT
-0.6021 <s> TURN RIGHT
-0.3010 <s> TWO </s>
-0.3010 <s> UNKNOWN </s>
-0.3010 BUILD MAP </s>
-0.3010 CLOSE RVIZ </s>
-0.3010 FOLLOW ME </s>
-0.3010 NAVIGATE TO </s>
-0.3010 OPEN RVIZ </s>
-0.3010 ROOM ONE </s>
-0.3010 ROTATE LEFT </s>
-0.3010 ROTATE RIGHT </s>
-0.3010 SAVE MAP </s>
-0.3010 STOP FOLLOWER </s>
-0.3010 STOP MAP </s>
-0.3010 TURN LEFT </s>
-0.3010 TURN RIGHT </s>

\end\
