Language model created by QuickLM on Tue Jul  7 10:23:16 EDT 2015
Copyright (c) 1996-2010 Carnegie Mellon University and Alexander I. Rudnicky

The model is in standard ARPA format, designed by Doug Paul while he was at MITRE.

The code that was used to produce this language model is available in Open Source.
Please visit http://www.speech.cs.cmu.edu/tools/ for more information

The (fixed) discount mass is 0.5. The backoffs are computed using the ratio method.
This model based on a corpus of 37 sentences and 33 words

\data\
ngram 1=33
ngram 2=69
ngram 3=68

\1-grams:
-0.8851 </s> -0.3010
-0.8851 <s> -0.2315
-2.1523 BACK -0.2404
-1.9762 BACKWARD -0.2404
-2.4533 CANCEL -0.2404
-1.7543 COME -0.2742
-2.1523 DOWN -0.2404
-2.4533 FASTER -0.2404
-2.4533 FOLLOW -0.2980
-1.9762 FOLLOWER -0.2404
-1.9762 FORWARD -0.2404
-2.4533 FULL -0.2949
-1.6752 GO -0.2710
-2.4533 HALT -0.2404
-1.7543 LEFT -0.2404
-2.1523 ME -0.2404
-1.7543 MOVE -0.2726
-1.7543 RIGHT -0.2404
-2.1523 ROTATE -0.2855
-2.4533 RUN -0.2964
-1.8513 SPEED -0.2386
-2.4533 STAY -0.2404
-1.9762 STOP -0.2333
-2.4533 STRAIGHT -0.2404
-2.1523 TURN -0.2855
-2.4533 UP -0.2404
-2.4533 WITH -0.2980

\2-grams:
-1.8692 <s> CANCEL 0.0000
-1.1703 <s> COME 0.0000
-1.8692 <s> FASTER 0.0000
-1.8692 <s> FOLLOW 0.0000
-1.8692 <s> FOLLOWER 0.0000
-1.8692 <s> FULL 0.0000
-1.0911 <s> GO 0.0000
-1.8692 <s> HALT 0.0000
-1.1703 <s> MOVE 0.0000
-1.5682 <s> ROTATE 0.0000
-1.8692 <s> RUN 0.0000
-1.8692 <s> SHUT 0.0000
-1.8692 <s> SLOWER 0.0000
-1.8692 <s> SPEED -0.2430
-1.8692 <s> STAY 0.0000
-1.3921 <s> STOP 0.0000
-1.5682 <s> TURN 0.0000
-0.3010 BACK </s> -0.3010
-0.3010 BACKWARD </s> -0.3010
-0.3010 CANCEL </s> -0.3010
-1.0000 COME BACKWARD 0.0000
-1.0000 COME FORWARD 0.0000
-1.0000 COME LEFT 0.0000
-1.0000 COME RIGHT 0.0000
-1.0000 COME WITH 0.0000
-0.3010 DOWN </s> -0.3010
-0.3010 FASTER </s> -0.3010
-0.3010 FOLLOW ME 0.0000
-0.3010 FOLLOWER </s> -0.3010
-0.3010 FORWARD </s> -0.3010
-0.3010 FULL SPEED -0.0969
-1.0792 GO BACK 0.0000
-1.0792 GO BACKWARD 0.0000
-1.0792 GO FORWARD 0.0000
-1.0792 GO LEFT 0.0000
-1.0792 GO RIGHT 0.0000
-1.0792 GO STRAIGHT 0.0000
-0.3010 HALF SPEED -0.0969
-0.3010 HALT </s> -0.3010
-0.3010 LEFT </s> -0.3010
-0.3010 ME </s> -0.3010
-1.0000 MOVE BACK 0.0000
-1.0000 MOVE BACKWARD 0.0000
-1.0000 MOVE FORWARD 0.0000
-1.0000 MOVE LEFT 0.0000
-1.0000 MOVE RIGHT 0.0000
-0.3010 NOW </s> -0.3010
-0.3010 QUARTER SPEED -0.0969
-0.3010 RIGHT </s> -0.3010
-0.6021 ROTATE LEFT 0.0000
-0.6021 ROTATE RIGHT 0.0000
-0.3010 RUN FOLLOWER 0.0000
-0.3010 SHUT DOWN 0.0000
-0.3010 SLOW DOWN 0.0000
-0.3010 SLOWER </s> -0.3010
-0.4260 SPEED </s> -0.3010
-0.9031 SPEED UP 0.0000
-0.3010 STAY </s> -0.3010
-0.7782 STOP </s> -0.3010
-0.7782 STOP FOLLOWER 0.0000
-0.7782 STOP NOW 0.0000
-0.3010 STRAIGHT </s> -0.3010
-0.6021 TURN LEFT 0.0000
-0.6021 TURN RIGHT 0.0000
-0.3010 UP </s> -0.3010
-0.3010 WITH ME 0.0000

\3-grams:
-0.3010 <s> CANCEL </s>
-1.0000 <s> COME BACKWARD
-1.0000 <s> COME FORWARD
-1.0000 <s> COME LEFT
-1.0000 <s> COME RIGHT
-1.0000 <s> COME WITH
-0.3010 <s> FASTER </s>
-0.3010 <s> FOLLOW ME
-0.3010 <s> FOLLOWER </s>
-0.3010 <s> FULL SPEED
-1.0792 <s> GO BACK
-1.0792 <s> GO BACKWARD
-1.0792 <s> GO FORWARD
-1.0792 <s> GO LEFT
-1.0792 <s> GO RIGHT
-1.0792 <s> GO STRAIGHT
-0.3010 <s> HALF SPEED
-0.3010 <s> HALT </s>
-1.0000 <s> MOVE BACK
-1.0000 <s> MOVE BACKWARD
-1.0000 <s> MOVE FORWARD
-1.0000 <s> MOVE LEFT
-1.0000 <s> MOVE RIGHT
-0.3010 <s> QUARTER SPEED
-0.6021 <s> ROTATE LEFT
-0.6021 <s> ROTATE RIGHT
-0.3010 <s> RUN FOLLOWER
-0.3010 <s> SHUT DOWN
-0.3010 <s> SLOW DOWN
-0.3010 <s> SLOWER </s>
-0.3010 <s> SPEED UP
-0.3010 <s> STAY </s>
-0.7782 <s> STOP </s>
-0.7782 <s> STOP FOLLOWER
-0.7782 <s> STOP NOW
-0.6021 <s> TURN LEFT
-0.6021 <s> TURN RIGHT
-0.3010 COME BACKWARD </s>
-0.3010 COME FORWARD </s>
-0.3010 COME LEFT </s>
-0.3010 COME RIGHT </s>
-0.3010 COME WITH ME
-0.3010 FOLLOW ME </s>
-0.3010 FULL SPEED </s>
-0.3010 GO BACK </s>
-0.3010 GO BACKWARD </s>
-0.3010 GO FORWARD </s>
-0.3010 GO LEFT </s>
-0.3010 GO RIGHT </s>
-0.3010 GO STRAIGHT </s>
-0.3010 HALF SPEED </s>
-0.3010 MOVE BACK </s>
-0.3010 MOVE BACKWARD </s>
-0.3010 MOVE FORWARD </s>
-0.3010 MOVE LEFT </s>
-0.3010 MOVE RIGHT </s>
-0.3010 QUARTER SPEED </s>
-0.3010 ROTATE LEFT </s>
-0.3010 ROTATE RIGHT </s>
-0.3010 RUN FOLLOWER </s>
-0.3010 SHUT DOWN </s>
-0.3010 SLOW DOWN </s>
-0.3010 SPEED UP </s>
-0.3010 STOP FOLLOWER </s>
-0.3010 STOP NOW </s>
-0.3010 TURN LEFT </s>
-0.3010 TURN RIGHT </s>
-0.3010 WITH ME </s>

\end\
